0.057283
-0.044086
0
0
0
0
0
0
0
0
-0.016576
-0.074937
0.0034069
-0.0024899
-0.092224
0.0092187
-0.016194
-0.47456
0.014572
0
-0.20884
0
-0.00076197
-0.10769
0.023509
-0.005698
-0.11917
0.078437
-0.0015909
0
0
-0.0051187
0.010161
0
0.0041014
-0.030209
0
0
0.00045325
-0.027256
0
0
-0.00067494
-0.011902
0.020472
0.073265
-0.028413
-0.085898
0.016713
0.00086439
-0.20675
-0.085166
0
0.15117
0.16407
-0.10594
-6.8945e-05
0.35303
0.04714
0
0.034017
-0.060127
-1.3036e-05
0
0.11706
0
-0.094397
0
0
0
0.032947
0.073468
-0.028388
-0.0081578
-0.0037472
0.18431
0.16641
0.18285
-0.0097961
0
0
0
0
0
0
0
0
0
0
-0.28644
-0.12436
0
0
-0.06608
0
-0.020623
0
0
-0.016639
-0.3067
0.016766
0.019572
-0.34837
0.051599
0.030159
-0.4999
0.06506
0
0
-0.0022238
0
-0.19
0.16949
-0.05279
0
-0.094357
0.013362
0.044821
-0.055659
0
0
-0.23094
-0.17442
0.043951
0.063004
-0.20554
0.076681
-0.053618
0
-0.17624
0
-0.034826
0.015844
0
0
0
-1.7014
0.3132
1.682
0.0064809
-0.12727
-0.00022784
1.6198
0
0
0
0.55522
0.056355
0.30914
0
-0.64173
0.045247
0.00096352
-0.027977
0.036274
0
0.22644
-0.84771
0
0
0
0.0022155
0
0
0.04331
0
0
0.0078057
0.077662
0
0.025508
0
0
0.032044
-0.066365
-0.16213
0.02244
-0.041679
-0.045407
0.00645
0.0099284
-0.030391
0
0.0055093
-0.028181
0.012477
0.012374
0
0.086786
-0.23119
-0.023033
-0.0050068
0.0035981
0
0.0016253
0
0.064229
0
0
0
-0.16562
-0.18891
0.46286
-0.54305
0.010401
-0.048506
0.013811
0.0577
-1.6812e-07
-0.0067899
0.021104
0.00015872
0.019373
0
-0.0010317
-0.25189
0.042594
0
-0.024811
0.012369
0
0.091734
0
0
-0.14789
-0.058199
0
0.011393
0.011626
0.040054
0.19488
-0.074033
-0.35725
0
0.080328
-0.18599
0.022038
0.030253
1194.9
-660.99
-701.69
-145.41
-0.12725
-0.012526
-0.022939
0.089861
0
0
47.58
-40.206
0
-0.054189
-0.029765
0.03021
0.19629
-0.022573
0.094482
-0.02084
0
0
0
0
0.10616
-0.10091
0.28806
0
0
0
0.142
0
-0.0037137
0.077454
0
0.022476
0.0063916
0
0
0
0
0.0062068
0.018751
-0.23597
0
0.10635
-0.13648
0.021881
0
0.046471
0
-0.037982
0.013991
0
0
0.015807
0
0.0026159
-0.059527
0.058201
-0.054313
0.033688
0.065504
0
0.049437
-0.0675
0
-0.011399
0
0.022891
0.0017479
0
1.0038
-0.26997
-0.1965
1.0117
0.87004
0.05116
-0.015997
-0.05886
-0.15645
-0.8059
-0.0041038
0
0
0
0
-0.045254
-0.3653
-0.026764
-0.013942
-0.0033961
0.085144
0
-2.618
1.3982
0.9845
